digraph Tree {
node [shape=box, style="filled, rounded", color="black", fontname=helvetica] ;
edge [fontname=helvetica] ;
0 [label="G2 <= 10.5\ngini = 0.914\nsamples = 296\nvalue = [23, 6, 12, 8, 25, 19, 42, 40, 26, 24, 20, 22\n13, 6, 7, 2, 1]", fillcolor="#39e59502"] ;
1 [label="G2 <= 8.5\ngini = 0.843\nsamples = 144\nvalue = [23, 6, 12, 8, 25, 18, 37, 13, 2, 0, 0, 0, 0\n0, 0, 0, 0]", fillcolor="#39e5951a"] ;
0 -> 1 [labeldistance=2.5, labelangle=45, headlabel="True"] ;
2 [label="absences <= 1.0\ngini = 0.811\nsamples = 71\nvalue = [20, 6, 12, 7, 17, 5, 2, 2, 0, 0, 0, 0, 0, 0\n0, 0, 0]", fillcolor="#e581390e"] ;
1 -> 2 ;
3 [label="G2 <= 6.5\ngini = 0.295\nsamples = 24\nvalue = [20, 0, 1, 0, 2, 0, 0, 1, 0, 0, 0, 0, 0, 0\n0, 0, 0]", fillcolor="#e58139d1"] ;
2 -> 3 ;
4 [label="gini = 0.0\nsamples = 16\nvalue = [16, 0, 0, 0, 0, 0, 0, 0, 0, 0, 0, 0, 0, 0\n0, 0, 0]", fillcolor="#e58139ff"] ;
3 -> 4 ;
5 [label="freetime <= 3.5\ngini = 0.656\nsamples = 8\nvalue = [4, 0, 1, 0, 2, 0, 0, 1, 0, 0, 0, 0, 0, 0\n0, 0, 0]", fillcolor="#e5813955"] ;
3 -> 5 ;
6 [label="gini = 0.0\nsamples = 4\nvalue = [4, 0, 0, 0, 0, 0, 0, 0, 0, 0, 0, 0, 0, 0\n0, 0, 0]", fillcolor="#e58139ff"] ;
5 -> 6 ;
7 [label="age <= 15.5\ngini = 0.625\nsamples = 4\nvalue = [0, 0, 1, 0, 2, 0, 0, 1, 0, 0, 0, 0, 0, 0\n0, 0, 0]", fillcolor="#58e53955"] ;
5 -> 7 ;
8 [label="health <= 3.0\ngini = 0.5\nsamples = 2\nvalue = [0, 0, 1, 0, 0, 0, 0, 1, 0, 0, 0, 0, 0, 0\n0, 0, 0]", fillcolor="#d1e53900"] ;
7 -> 8 ;
9 [label="gini = 0.0\nsamples = 1\nvalue = [0, 0, 0, 0, 0, 0, 0, 1, 0, 0, 0, 0, 0, 0\n0, 0, 0]", fillcolor="#39e5d1ff"] ;
8 -> 9 ;
10 [label="gini = 0.0\nsamples = 1\nvalue = [0, 0, 1, 0, 0, 0, 0, 0, 0, 0, 0, 0, 0, 0\n0, 0, 0]", fillcolor="#d1e539ff"] ;
8 -> 10 ;
11 [label="gini = 0.0\nsamples = 2\nvalue = [0, 0, 0, 0, 2, 0, 0, 0, 0, 0, 0, 0, 0, 0\n0, 0, 0]", fillcolor="#58e539ff"] ;
7 -> 11 ;
12 [label="G2 <= 6.5\ngini = 0.791\nsamples = 47\nvalue = [0, 6, 11, 7, 15, 5, 2, 1, 0, 0, 0, 0, 0, 0\n0, 0, 0]", fillcolor="#58e5391c"] ;
2 -> 12 ;
13 [label="failures <= 0.5\ngini = 0.637\nsamples = 17\nvalue = [0, 6, 8, 2, 1, 0, 0, 0, 0, 0, 0, 0, 0, 0\n0, 0, 0]", fillcolor="#d1e5392e"] ;
12 -> 13 ;
14 [label="famrel <= 3.5\ngini = 0.5\nsamples = 12\nvalue = [0, 2, 8, 2, 0, 0, 0, 0, 0, 0, 0, 0, 0, 0\n0, 0, 0]", fillcolor="#d1e53999"] ;
13 -> 14 ;
15 [label="freetime <= 3.5\ngini = 0.444\nsamples = 3\nvalue = [0, 2, 1, 0, 0, 0, 0, 0, 0, 0, 0, 0, 0, 0\n0, 0, 0]", fillcolor="#e5bd397f"] ;
14 -> 15 ;
16 [label="gini = 0.0\nsamples = 1\nvalue = [0, 0, 1, 0, 0, 0, 0, 0, 0, 0, 0, 0, 0, 0\n0, 0, 0]", fillcolor="#d1e539ff"] ;
15 -> 16 ;
17 [label="gini = 0.0\nsamples = 2\nvalue = [0, 2, 0, 0, 0, 0, 0, 0, 0, 0, 0, 0, 0, 0\n0, 0, 0]", fillcolor="#e5bd39ff"] ;
15 -> 17 ;
18 [label="Walc <= 2.5\ngini = 0.346\nsamples = 9\nvalue = [0, 0, 7, 2, 0, 0, 0, 0, 0, 0, 0, 0, 0, 0\n0, 0, 0]", fillcolor="#d1e539b6"] ;
14 -> 18 ;
19 [label="gini = 0.0\nsamples = 6\nvalue = [0, 0, 6, 0, 0, 0, 0, 0, 0, 0, 0, 0, 0, 0\n0, 0, 0]", fillcolor="#d1e539ff"] ;
18 -> 19 ;
20 [label="health <= 4.5\ngini = 0.444\nsamples = 3\nvalue = [0, 0, 1, 2, 0, 0, 0, 0, 0, 0, 0, 0, 0, 0\n0, 0, 0]", fillcolor="#95e5397f"] ;
18 -> 20 ;
21 [label="gini = 0.0\nsamples = 1\nvalue = [0, 0, 1, 0, 0, 0, 0, 0, 0, 0, 0, 0, 0, 0\n0, 0, 0]", fillcolor="#d1e539ff"] ;
20 -> 21 ;
22 [label="gini = 0.0\nsamples = 2\nvalue = [0, 0, 0, 2, 0, 0, 0, 0, 0, 0, 0, 0, 0, 0\n0, 0, 0]", fillcolor="#95e539ff"] ;
20 -> 22 ;
23 [label="freetime <= 2.5\ngini = 0.32\nsamples = 5\nvalue = [0, 4, 0, 0, 1, 0, 0, 0, 0, 0, 0, 0, 0, 0\n0, 0, 0]", fillcolor="#e5bd39bf"] ;
13 -> 23 ;
24 [label="gini = 0.0\nsamples = 1\nvalue = [0, 0, 0, 0, 1, 0, 0, 0, 0, 0, 0, 0, 0, 0\n0, 0, 0]", fillcolor="#58e539ff"] ;
23 -> 24 ;
25 [label="gini = 0.0\nsamples = 4\nvalue = [0, 4, 0, 0, 0, 0, 0, 0, 0, 0, 0, 0, 0, 0\n0, 0, 0]", fillcolor="#e5bd39ff"] ;
23 -> 25 ;
26 [label="sex <= 0.5\ngini = 0.711\nsamples = 30\nvalue = [0, 0, 3, 5, 14, 5, 2, 1, 0, 0, 0, 0, 0, 0\n0, 0, 0]", fillcolor="#58e5395c"] ;
12 -> 26 ;
27 [label="Walc <= 1.5\ngini = 0.809\nsamples = 15\nvalue = [0, 0, 2, 4, 3, 3, 2, 1, 0, 0, 0, 0, 0, 0\n0, 0, 0]", fillcolor="#95e53915"] ;
26 -> 27 ;
28 [label="failures <= 1.5\ngini = 0.48\nsamples = 5\nvalue = [0, 0, 0, 3, 0, 2, 0, 0, 0, 0, 0, 0, 0, 0\n0, 0, 0]", fillcolor="#95e53955"] ;
27 -> 28 ;
29 [label="gini = 0.0\nsamples = 3\nvalue = [0, 0, 0, 3, 0, 0, 0, 0, 0, 0, 0, 0, 0, 0\n0, 0, 0]", fillcolor="#95e539ff"] ;
28 -> 29 ;
30 [label="gini = 0.0\nsamples = 2\nvalue = [0, 0, 0, 0, 0, 2, 0, 0, 0, 0, 0, 0, 0, 0\n0, 0, 0]", fillcolor="#39e556ff"] ;
28 -> 30 ;
31 [label="Fedu <= 2.5\ngini = 0.8\nsamples = 10\nvalue = [0, 0, 2, 1, 3, 1, 2, 1, 0, 0, 0, 0, 0, 0\n0, 0, 0]", fillcolor="#58e53920"] ;
27 -> 31 ;
32 [label="absences <= 4.5\ngini = 0.722\nsamples = 6\nvalue = [0, 0, 2, 1, 0, 0, 2, 1, 0, 0, 0, 0, 0, 0\n0, 0, 0]", fillcolor="#d1e53900"] ;
31 -> 32 ;
33 [label="gini = 0.0\nsamples = 2\nvalue = [0, 0, 2, 0, 0, 0, 0, 0, 0, 0, 0, 0, 0, 0\n0, 0, 0]", fillcolor="#d1e539ff"] ;
32 -> 33 ;
34 [label="Mjob <= 2.0\ngini = 0.625\nsamples = 4\nvalue = [0, 0, 0, 1, 0, 0, 2, 1, 0, 0, 0, 0, 0, 0\n0, 0, 0]", fillcolor="#39e59555"] ;
32 -> 34 ;
35 [label="gini = 0.0\nsamples = 2\nvalue = [0, 0, 0, 0, 0, 0, 2, 0, 0, 0, 0, 0, 0, 0\n0, 0, 0]", fillcolor="#39e595ff"] ;
34 -> 35 ;
36 [label="goout <= 4.0\ngini = 0.5\nsamples = 2\nvalue = [0, 0, 0, 1, 0, 0, 0, 1, 0, 0, 0, 0, 0, 0\n0, 0, 0]", fillcolor="#95e53900"] ;
34 -> 36 ;
37 [label="gini = 0.0\nsamples = 1\nvalue = [0, 0, 0, 1, 0, 0, 0, 0, 0, 0, 0, 0, 0, 0\n0, 0, 0]", fillcolor="#95e539ff"] ;
36 -> 37 ;
38 [label="gini = 0.0\nsamples = 1\nvalue = [0, 0, 0, 0, 0, 0, 0, 1, 0, 0, 0, 0, 0, 0\n0, 0, 0]", fillcolor="#39e5d1ff"] ;
36 -> 38 ;
39 [label="Mjob <= 2.5\ngini = 0.375\nsamples = 4\nvalue = [0, 0, 0, 0, 3, 1, 0, 0, 0, 0, 0, 0, 0, 0\n0, 0, 0]", fillcolor="#58e539aa"] ;
31 -> 39 ;
40 [label="gini = 0.0\nsamples = 3\nvalue = [0, 0, 0, 0, 3, 0, 0, 0, 0, 0, 0, 0, 0, 0\n0, 0, 0]", fillcolor="#58e539ff"] ;
39 -> 40 ;
41 [label="gini = 0.0\nsamples = 1\nvalue = [0, 0, 0, 0, 0, 1, 0, 0, 0, 0, 0, 0, 0, 0\n0, 0, 0]", fillcolor="#39e556ff"] ;
39 -> 41 ;
42 [label="G1 <= 9.5\ngini = 0.436\nsamples = 15\nvalue = [0, 0, 1, 1, 11, 2, 0, 0, 0, 0, 0, 0, 0, 0\n0, 0, 0]", fillcolor="#58e539b1"] ;
26 -> 42 ;
43 [label="famrel <= 3.5\ngini = 0.165\nsamples = 11\nvalue = [0, 0, 1, 0, 10, 0, 0, 0, 0, 0, 0, 0, 0, 0\n0, 0, 0]", fillcolor="#58e539e6"] ;
42 -> 43 ;
44 [label="goout <= 2.5\ngini = 0.5\nsamples = 2\nvalue = [0, 0, 1, 0, 1, 0, 0, 0, 0, 0, 0, 0, 0, 0\n0, 0, 0]", fillcolor="#d1e53900"] ;
43 -> 44 ;
45 [label="gini = 0.0\nsamples = 1\nvalue = [0, 0, 1, 0, 0, 0, 0, 0, 0, 0, 0, 0, 0, 0\n0, 0, 0]", fillcolor="#d1e539ff"] ;
44 -> 45 ;
46 [label="gini = 0.0\nsamples = 1\nvalue = [0, 0, 0, 0, 1, 0, 0, 0, 0, 0, 0, 0, 0, 0\n0, 0, 0]", fillcolor="#58e539ff"] ;
44 -> 46 ;
47 [label="gini = 0.0\nsamples = 9\nvalue = [0, 0, 0, 0, 9, 0, 0, 0, 0, 0, 0, 0, 0, 0\n0, 0, 0]", fillcolor="#58e539ff"] ;
43 -> 47 ;
48 [label="freetime <= 3.5\ngini = 0.625\nsamples = 4\nvalue = [0, 0, 0, 1, 1, 2, 0, 0, 0, 0, 0, 0, 0, 0\n0, 0, 0]", fillcolor="#39e55655"] ;
42 -> 48 ;
49 [label="gini = 0.0\nsamples = 2\nvalue = [0, 0, 0, 0, 0, 2, 0, 0, 0, 0, 0, 0, 0, 0\n0, 0, 0]", fillcolor="#39e556ff"] ;
48 -> 49 ;
50 [label="absences <= 2.5\ngini = 0.5\nsamples = 2\nvalue = [0, 0, 0, 1, 1, 0, 0, 0, 0, 0, 0, 0, 0, 0\n0, 0, 0]", fillcolor="#95e53900"] ;
48 -> 50 ;
51 [label="gini = 0.0\nsamples = 1\nvalue = [0, 0, 0, 0, 1, 0, 0, 0, 0, 0, 0, 0, 0, 0\n0, 0, 0]", fillcolor="#58e539ff"] ;
50 -> 51 ;
52 [label="gini = 0.0\nsamples = 1\nvalue = [0, 0, 0, 1, 0, 0, 0, 0, 0, 0, 0, 0, 0, 0\n0, 0, 0]", fillcolor="#95e539ff"] ;
50 -> 52 ;
53 [label="G1 <= 11.5\ngini = 0.701\nsamples = 73\nvalue = [3, 0, 0, 1, 8, 13, 35, 11, 2, 0, 0, 0, 0, 0\n0, 0, 0]", fillcolor="#39e5955e"] ;
1 -> 53 ;
54 [label="G2 <= 9.5\ngini = 0.672\nsamples = 68\nvalue = [3, 0, 0, 1, 8, 13, 35, 7, 1, 0, 0, 0, 0, 0\n0, 0, 0]", fillcolor="#39e59566"] ;
53 -> 54 ;
55 [label="G1 <= 7.5\ngini = 0.717\nsamples = 35\nvalue = [2, 0, 0, 1, 8, 9, 14, 1, 0, 0, 0, 0, 0, 0\n0, 0, 0]", fillcolor="#39e59531"] ;
54 -> 55 ;
56 [label="G1 <= 5.5\ngini = 0.278\nsamples = 6\nvalue = [0, 0, 0, 1, 5, 0, 0, 0, 0, 0, 0, 0, 0, 0\n0, 0, 0]", fillcolor="#58e539cc"] ;
55 -> 56 ;
57 [label="gini = 0.0\nsamples = 1\nvalue = [0, 0, 0, 1, 0, 0, 0, 0, 0, 0, 0, 0, 0, 0\n0, 0, 0]", fillcolor="#95e539ff"] ;
56 -> 57 ;
58 [label="gini = 0.0\nsamples = 5\nvalue = [0, 0, 0, 0, 5, 0, 0, 0, 0, 0, 0, 0, 0, 0\n0, 0, 0]", fillcolor="#58e539ff"] ;
56 -> 58 ;
59 [label="absences <= 9.5\ngini = 0.654\nsamples = 29\nvalue = [2, 0, 0, 0, 3, 9, 14, 1, 0, 0, 0, 0, 0, 0\n0, 0, 0]", fillcolor="#39e59540"] ;
55 -> 59 ;
60 [label="G1 <= 9.5\ngini = 0.567\nsamples = 21\nvalue = [2, 0, 0, 0, 1, 4, 13, 1, 0, 0, 0, 0, 0, 0\n0, 0, 0]", fillcolor="#39e59587"] ;
59 -> 60 ;
61 [label="age <= 18.5\ngini = 0.255\nsamples = 14\nvalue = [1, 0, 0, 0, 0, 1, 12, 0, 0, 0, 0, 0, 0, 0\n0, 0, 0]", fillcolor="#39e595d8"] ;
60 -> 61 ;
62 [label="absences <= 7.0\ngini = 0.142\nsamples = 13\nvalue = [0, 0, 0, 0, 0, 1, 12, 0, 0, 0, 0, 0, 0, 0\n0, 0, 0]", fillcolor="#39e595ea"] ;
61 -> 62 ;
63 [label="gini = 0.0\nsamples = 10\nvalue = [0, 0, 0, 0, 0, 0, 10, 0, 0, 0, 0, 0, 0, 0\n0, 0, 0]", fillcolor="#39e595ff"] ;
62 -> 63 ;
64 [label="Medu <= 2.5\ngini = 0.444\nsamples = 3\nvalue = [0, 0, 0, 0, 0, 1, 2, 0, 0, 0, 0, 0, 0, 0\n0, 0, 0]", fillcolor="#39e5957f"] ;
62 -> 64 ;
65 [label="gini = 0.0\nsamples = 1\nvalue = [0, 0, 0, 0, 0, 1, 0, 0, 0, 0, 0, 0, 0, 0\n0, 0, 0]", fillcolor="#39e556ff"] ;
64 -> 65 ;
66 [label="gini = 0.0\nsamples = 2\nvalue = [0, 0, 0, 0, 0, 0, 2, 0, 0, 0, 0, 0, 0, 0\n0, 0, 0]", fillcolor="#39e595ff"] ;
64 -> 66 ;
67 [label="gini = 0.0\nsamples = 1\nvalue = [1, 0, 0, 0, 0, 0, 0, 0, 0, 0, 0, 0, 0, 0\n0, 0, 0]", fillcolor="#e58139ff"] ;
61 -> 67 ;
68 [label="Medu <= 2.5\ngini = 0.735\nsamples = 7\nvalue = [1, 0, 0, 0, 1, 3, 1, 1, 0, 0, 0, 0, 0, 0\n0, 0, 0]", fillcolor="#39e55655"] ;
60 -> 68 ;
69 [label="age <= 16.0\ngini = 0.75\nsamples = 4\nvalue = [1, 0, 0, 0, 1, 0, 1, 1, 0, 0, 0, 0, 0, 0\n0, 0, 0]", fillcolor="#e5813900"] ;
68 -> 69 ;
70 [label="gini = 0.0\nsamples = 1\nvalue = [0, 0, 0, 0, 1, 0, 0, 0, 0, 0, 0, 0, 0, 0\n0, 0, 0]", fillcolor="#58e539ff"] ;
69 -> 70 ;
71 [label="age <= 17.5\ngini = 0.667\nsamples = 3\nvalue = [1, 0, 0, 0, 0, 0, 1, 1, 0, 0, 0, 0, 0, 0\n0, 0, 0]", fillcolor="#e5813900"] ;
69 -> 71 ;
72 [label="gini = 0.0\nsamples = 1\nvalue = [0, 0, 0, 0, 0, 0, 0, 1, 0, 0, 0, 0, 0, 0\n0, 0, 0]", fillcolor="#39e5d1ff"] ;
71 -> 72 ;
73 [label="goout <= 3.5\ngini = 0.5\nsamples = 2\nvalue = [1, 0, 0, 0, 0, 0, 1, 0, 0, 0, 0, 0, 0, 0\n0, 0, 0]", fillcolor="#e5813900"] ;
71 -> 73 ;
74 [label="gini = 0.0\nsamples = 1\nvalue = [0, 0, 0, 0, 0, 0, 1, 0, 0, 0, 0, 0, 0, 0\n0, 0, 0]", fillcolor="#39e595ff"] ;
73 -> 74 ;
75 [label="gini = 0.0\nsamples = 1\nvalue = [1, 0, 0, 0, 0, 0, 0, 0, 0, 0, 0, 0, 0, 0\n0, 0, 0]", fillcolor="#e58139ff"] ;
73 -> 75 ;
76 [label="gini = 0.0\nsamples = 3\nvalue = [0, 0, 0, 0, 0, 3, 0, 0, 0, 0, 0, 0, 0, 0\n0, 0, 0]", fillcolor="#39e556ff"] ;
68 -> 76 ;
77 [label="reason <= 3.5\ngini = 0.531\nsamples = 8\nvalue = [0, 0, 0, 0, 2, 5, 1, 0, 0, 0, 0, 0, 0, 0\n0, 0, 0]", fillcolor="#39e55680"] ;
59 -> 77 ;
78 [label="paid <= 0.5\ngini = 0.278\nsamples = 6\nvalue = [0, 0, 0, 0, 0, 5, 1, 0, 0, 0, 0, 0, 0, 0\n0, 0, 0]", fillcolor="#39e556cc"] ;
77 -> 78 ;
79 [label="Pstatus <= 0.5\ngini = 0.5\nsamples = 2\nvalue = [0, 0, 0, 0, 0, 1, 1, 0, 0, 0, 0, 0, 0, 0\n0, 0, 0]", fillcolor="#39e55600"] ;
78 -> 79 ;
80 [label="gini = 0.0\nsamples = 1\nvalue = [0, 0, 0, 0, 0, 0, 1, 0, 0, 0, 0, 0, 0, 0\n0, 0, 0]", fillcolor="#39e595ff"] ;
79 -> 80 ;
81 [label="gini = 0.0\nsamples = 1\nvalue = [0, 0, 0, 0, 0, 1, 0, 0, 0, 0, 0, 0, 0, 0\n0, 0, 0]", fillcolor="#39e556ff"] ;
79 -> 81 ;
82 [label="gini = 0.0\nsamples = 4\nvalue = [0, 0, 0, 0, 0, 4, 0, 0, 0, 0, 0, 0, 0, 0\n0, 0, 0]", fillcolor="#39e556ff"] ;
78 -> 82 ;
83 [label="gini = 0.0\nsamples = 2\nvalue = [0, 0, 0, 0, 2, 0, 0, 0, 0, 0, 0, 0, 0, 0\n0, 0, 0]", fillcolor="#58e539ff"] ;
77 -> 83 ;
84 [label="health <= 4.5\ngini = 0.545\nsamples = 33\nvalue = [1, 0, 0, 0, 0, 4, 21, 6, 1, 0, 0, 0, 0, 0\n0, 0, 0]", fillcolor="#39e5958e"] ;
54 -> 84 ;
85 [label="famsize <= 0.5\ngini = 0.438\nsamples = 26\nvalue = [1, 0, 0, 0, 0, 1, 19, 4, 1, 0, 0, 0, 0, 0\n0, 0, 0]", fillcolor="#39e595ae"] ;
84 -> 85 ;
86 [label="G1 <= 7.5\ngini = 0.722\nsamples = 6\nvalue = [0, 0, 0, 0, 0, 1, 2, 2, 1, 0, 0, 0, 0, 0\n0, 0, 0]", fillcolor="#39e59500"] ;
85 -> 86 ;
87 [label="gini = 0.0\nsamples = 2\nvalue = [0, 0, 0, 0, 0, 0, 0, 2, 0, 0, 0, 0, 0, 0\n0, 0, 0]", fillcolor="#39e5d1ff"] ;
86 -> 87 ;
88 [label="age <= 16.5\ngini = 0.625\nsamples = 4\nvalue = [0, 0, 0, 0, 0, 1, 2, 0, 1, 0, 0, 0, 0, 0\n0, 0, 0]", fillcolor="#39e59555"] ;
86 -> 88 ;
89 [label="Fjob <= 2.0\ngini = 0.5\nsamples = 2\nvalue = [0, 0, 0, 0, 0, 1, 0, 0, 1, 0, 0, 0, 0, 0\n0, 0, 0]", fillcolor="#39e55600"] ;
88 -> 89 ;
90 [label="gini = 0.0\nsamples = 1\nvalue = [0, 0, 0, 0, 0, 0, 0, 0, 1, 0, 0, 0, 0, 0\n0, 0, 0]", fillcolor="#39bde5ff"] ;
89 -> 90 ;
91 [label="gini = 0.0\nsamples = 1\nvalue = [0, 0, 0, 0, 0, 1, 0, 0, 0, 0, 0, 0, 0, 0\n0, 0, 0]", fillcolor="#39e556ff"] ;
89 -> 91 ;
92 [label="gini = 0.0\nsamples = 2\nvalue = [0, 0, 0, 0, 0, 0, 2, 0, 0, 0, 0, 0, 0, 0\n0, 0, 0]", fillcolor="#39e595ff"] ;
88 -> 92 ;
93 [label="Medu <= 3.5\ngini = 0.265\nsamples = 20\nvalue = [1, 0, 0, 0, 0, 0, 17, 2, 0, 0, 0, 0, 0, 0\n0, 0, 0]", fillcolor="#39e595d4"] ;
85 -> 93 ;
94 [label="gini = 0.0\nsamples = 15\nvalue = [0, 0, 0, 0, 0, 0, 15, 0, 0, 0, 0, 0, 0, 0\n0, 0, 0]", fillcolor="#39e595ff"] ;
93 -> 94 ;
95 [label="absences <= 1.0\ngini = 0.64\nsamples = 5\nvalue = [1, 0, 0, 0, 0, 0, 2, 2, 0, 0, 0, 0, 0, 0\n0, 0, 0]", fillcolor="#39e59500"] ;
93 -> 95 ;
96 [label="Fedu <= 3.0\ngini = 0.444\nsamples = 3\nvalue = [1, 0, 0, 0, 0, 0, 2, 0, 0, 0, 0, 0, 0, 0\n0, 0, 0]", fillcolor="#39e5957f"] ;
95 -> 96 ;
97 [label="gini = 0.0\nsamples = 2\nvalue = [0, 0, 0, 0, 0, 0, 2, 0, 0, 0, 0, 0, 0, 0\n0, 0, 0]", fillcolor="#39e595ff"] ;
96 -> 97 ;
98 [label="gini = 0.0\nsamples = 1\nvalue = [1, 0, 0, 0, 0, 0, 0, 0, 0, 0, 0, 0, 0, 0\n0, 0, 0]", fillcolor="#e58139ff"] ;
96 -> 98 ;
99 [label="gini = 0.0\nsamples = 2\nvalue = [0, 0, 0, 0, 0, 0, 0, 2, 0, 0, 0, 0, 0, 0\n0, 0, 0]", fillcolor="#39e5d1ff"] ;
95 -> 99 ;
100 [label="G1 <= 8.5\ngini = 0.653\nsamples = 7\nvalue = [0, 0, 0, 0, 0, 3, 2, 2, 0, 0, 0, 0, 0, 0\n0, 0, 0]", fillcolor="#39e55633"] ;
84 -> 100 ;
101 [label="goout <= 3.5\ngini = 0.444\nsamples = 3\nvalue = [0, 0, 0, 0, 0, 0, 2, 1, 0, 0, 0, 0, 0, 0\n0, 0, 0]", fillcolor="#39e5957f"] ;
100 -> 101 ;
102 [label="gini = 0.0\nsamples = 2\nvalue = [0, 0, 0, 0, 0, 0, 2, 0, 0, 0, 0, 0, 0, 0\n0, 0, 0]", fillcolor="#39e595ff"] ;
101 -> 102 ;
103 [label="gini = 0.0\nsamples = 1\nvalue = [0, 0, 0, 0, 0, 0, 0, 1, 0, 0, 0, 0, 0, 0\n0, 0, 0]", fillcolor="#39e5d1ff"] ;
101 -> 103 ;
104 [label="G1 <= 10.5\ngini = 0.375\nsamples = 4\nvalue = [0, 0, 0, 0, 0, 3, 0, 1, 0, 0, 0, 0, 0, 0\n0, 0, 0]", fillcolor="#39e556aa"] ;
100 -> 104 ;
105 [label="gini = 0.0\nsamples = 3\nvalue = [0, 0, 0, 0, 0, 3, 0, 0, 0, 0, 0, 0, 0, 0\n0, 0, 0]", fillcolor="#39e556ff"] ;
104 -> 105 ;
106 [label="gini = 0.0\nsamples = 1\nvalue = [0, 0, 0, 0, 0, 0, 0, 1, 0, 0, 0, 0, 0, 0\n0, 0, 0]", fillcolor="#39e5d1ff"] ;
104 -> 106 ;
107 [label="studytime <= 2.5\ngini = 0.32\nsamples = 5\nvalue = [0, 0, 0, 0, 0, 0, 0, 4, 1, 0, 0, 0, 0, 0\n0, 0, 0]", fillcolor="#39e5d1bf"] ;
53 -> 107 ;
108 [label="gini = 0.0\nsamples = 4\nvalue = [0, 0, 0, 0, 0, 0, 0, 4, 0, 0, 0, 0, 0, 0\n0, 0, 0]", fillcolor="#39e5d1ff"] ;
107 -> 108 ;
109 [label="gini = 0.0\nsamples = 1\nvalue = [0, 0, 0, 0, 0, 0, 0, 0, 1, 0, 0, 0, 0, 0\n0, 0, 0]", fillcolor="#39bde5ff"] ;
107 -> 109 ;
110 [label="G2 <= 13.5\ngini = 0.868\nsamples = 152\nvalue = [0, 0, 0, 0, 0, 1, 5, 27, 24, 24, 20, 22, 13\n6, 7, 2, 1]", fillcolor="#39e5d106"] ;
0 -> 110 [labeldistance=2.5, labelangle=-45, headlabel="False"] ;
111 [label="G2 <= 12.5\ngini = 0.755\nsamples = 87\nvalue = [0, 0, 0, 0, 0, 1, 5, 27, 24, 21, 9, 0, 0, 0\n0, 0, 0]", fillcolor="#39e5d10c"] ;
110 -> 111 ;
112 [label="G2 <= 11.5\ngini = 0.683\nsamples = 59\nvalue = [0, 0, 0, 0, 0, 1, 5, 26, 19, 6, 2, 0, 0, 0\n0, 0, 0]", fillcolor="#39e5d12d"] ;
111 -> 112 ;
113 [label="Mjob <= 3.5\ngini = 0.59\nsamples = 27\nvalue = [0, 0, 0, 0, 0, 1, 4, 16, 5, 1, 0, 0, 0, 0\n0, 0, 0]", fillcolor="#39e5d17f"] ;
112 -> 113 ;
114 [label="Fjob <= 2.0\ngini = 0.458\nsamples = 21\nvalue = [0, 0, 0, 0, 0, 1, 2, 15, 3, 0, 0, 0, 0, 0\n0, 0, 0]", fillcolor="#39e5d1aa"] ;
113 -> 114 ;
115 [label="goout <= 4.0\ngini = 0.165\nsamples = 11\nvalue = [0, 0, 0, 0, 0, 1, 0, 10, 0, 0, 0, 0, 0, 0\n0, 0, 0]", fillcolor="#39e5d1e6"] ;
114 -> 115 ;
116 [label="gini = 0.0\nsamples = 9\nvalue = [0, 0, 0, 0, 0, 0, 0, 9, 0, 0, 0, 0, 0, 0\n0, 0, 0]", fillcolor="#39e5d1ff"] ;
115 -> 116 ;
117 [label="Medu <= 3.5\ngini = 0.5\nsamples = 2\nvalue = [0, 0, 0, 0, 0, 1, 0, 1, 0, 0, 0, 0, 0, 0\n0, 0, 0]", fillcolor="#39e55600"] ;
115 -> 117 ;
118 [label="gini = 0.0\nsamples = 1\nvalue = [0, 0, 0, 0, 0, 1, 0, 0, 0, 0, 0, 0, 0, 0\n0, 0, 0]", fillcolor="#39e556ff"] ;
117 -> 118 ;
119 [label="gini = 0.0\nsamples = 1\nvalue = [0, 0, 0, 0, 0, 0, 0, 1, 0, 0, 0, 0, 0, 0\n0, 0, 0]", fillcolor="#39e5d1ff"] ;
117 -> 119 ;
120 [label="reason <= 2.5\ngini = 0.62\nsamples = 10\nvalue = [0, 0, 0, 0, 0, 0, 2, 5, 3, 0, 0, 0, 0, 0\n0, 0, 0]", fillcolor="#39e5d149"] ;
114 -> 120 ;
121 [label="gini = 0.0\nsamples = 2\nvalue = [0, 0, 0, 0, 0, 0, 2, 0, 0, 0, 0, 0, 0, 0\n0, 0, 0]", fillcolor="#39e595ff"] ;
120 -> 121 ;
122 [label="nursery <= 0.5\ngini = 0.469\nsamples = 8\nvalue = [0, 0, 0, 0, 0, 0, 0, 5, 3, 0, 0, 0, 0, 0\n0, 0, 0]", fillcolor="#39e5d166"] ;
120 -> 122 ;
123 [label="Dalc <= 1.5\ngini = 0.375\nsamples = 4\nvalue = [0, 0, 0, 0, 0, 0, 0, 1, 3, 0, 0, 0, 0, 0\n0, 0, 0]", fillcolor="#39bde5aa"] ;
122 -> 123 ;
124 [label="gini = 0.0\nsamples = 3\nvalue = [0, 0, 0, 0, 0, 0, 0, 0, 3, 0, 0, 0, 0, 0\n0, 0, 0]", fillcolor="#39bde5ff"] ;
123 -> 124 ;
125 [label="gini = 0.0\nsamples = 1\nvalue = [0, 0, 0, 0, 0, 0, 0, 1, 0, 0, 0, 0, 0, 0\n0, 0, 0]", fillcolor="#39e5d1ff"] ;
123 -> 125 ;
126 [label="gini = 0.0\nsamples = 4\nvalue = [0, 0, 0, 0, 0, 0, 0, 4, 0, 0, 0, 0, 0, 0\n0, 0, 0]", fillcolor="#39e5d1ff"] ;
122 -> 126 ;
127 [label="activities <= 0.5\ngini = 0.722\nsamples = 6\nvalue = [0, 0, 0, 0, 0, 0, 2, 1, 2, 1, 0, 0, 0, 0\n0, 0, 0]", fillcolor="#39e59500"] ;
113 -> 127 ;
128 [label="gini = 0.0\nsamples = 2\nvalue = [0, 0, 0, 0, 0, 0, 0, 0, 2, 0, 0, 0, 0, 0\n0, 0, 0]", fillcolor="#39bde5ff"] ;
127 -> 128 ;
129 [label="famsize <= 0.5\ngini = 0.625\nsamples = 4\nvalue = [0, 0, 0, 0, 0, 0, 2, 1, 0, 1, 0, 0, 0, 0\n0, 0, 0]", fillcolor="#39e59555"] ;
127 -> 129 ;
130 [label="gini = 0.0\nsamples = 2\nvalue = [0, 0, 0, 0, 0, 0, 2, 0, 0, 0, 0, 0, 0, 0\n0, 0, 0]", fillcolor="#39e595ff"] ;
129 -> 130 ;
131 [label="famrel <= 3.5\ngini = 0.5\nsamples = 2\nvalue = [0, 0, 0, 0, 0, 0, 0, 1, 0, 1, 0, 0, 0, 0\n0, 0, 0]", fillcolor="#39e5d100"] ;
129 -> 131 ;
132 [label="gini = 0.0\nsamples = 1\nvalue = [0, 0, 0, 0, 0, 0, 0, 0, 0, 1, 0, 0, 0, 0\n0, 0, 0]", fillcolor="#3981e5ff"] ;
131 -> 132 ;
133 [label="gini = 0.0\nsamples = 1\nvalue = [0, 0, 0, 0, 0, 0, 0, 1, 0, 0, 0, 0, 0, 0\n0, 0, 0]", fillcolor="#39e5d1ff"] ;
131 -> 133 ;
134 [label="Fjob <= 3.5\ngini = 0.682\nsamples = 32\nvalue = [0, 0, 0, 0, 0, 0, 1, 10, 14, 5, 2, 0, 0, 0\n0, 0, 0]", fillcolor="#39bde52e"] ;
112 -> 134 ;
135 [label="freetime <= 3.5\ngini = 0.673\nsamples = 29\nvalue = [0, 0, 0, 0, 0, 0, 1, 7, 14, 5, 2, 0, 0, 0\n0, 0, 0]", fillcolor="#39bde551"] ;
134 -> 135 ;
136 [label="absences <= 5.0\ngini = 0.72\nsamples = 17\nvalue = [0, 0, 0, 0, 0, 0, 0, 6, 5, 4, 2, 0, 0, 0\n0, 0, 0]", fillcolor="#39e5d115"] ;
135 -> 136 ;
137 [label="goout <= 2.5\ngini = 0.628\nsamples = 11\nvalue = [0, 0, 0, 0, 0, 0, 0, 4, 5, 0, 2, 0, 0, 0\n0, 0, 0]", fillcolor="#39bde524"] ;
136 -> 137 ;
138 [label="Dalc <= 1.5\ngini = 0.32\nsamples = 5\nvalue = [0, 0, 0, 0, 0, 0, 0, 0, 4, 0, 1, 0, 0, 0\n0, 0, 0]", fillcolor="#39bde5bf"] ;
137 -> 138 ;
139 [label="gini = 0.0\nsamples = 4\nvalue = [0, 0, 0, 0, 0, 0, 0, 0, 4, 0, 0, 0, 0, 0\n0, 0, 0]", fillcolor="#39bde5ff"] ;
138 -> 139 ;
140 [label="gini = 0.0\nsamples = 1\nvalue = [0, 0, 0, 0, 0, 0, 0, 0, 0, 0, 1, 0, 0, 0\n0, 0, 0]", fillcolor="#3944e5ff"] ;
138 -> 140 ;
141 [label="G1 <= 13.0\ngini = 0.5\nsamples = 6\nvalue = [0, 0, 0, 0, 0, 0, 0, 4, 1, 0, 1, 0, 0, 0\n0, 0, 0]", fillcolor="#39e5d199"] ;
137 -> 141 ;
142 [label="gini = 0.0\nsamples = 4\nvalue = [0, 0, 0, 0, 0, 0, 0, 4, 0, 0, 0, 0, 0, 0\n0, 0, 0]", fillcolor="#39e5d1ff"] ;
141 -> 142 ;
143 [label="reason <= 3.0\ngini = 0.5\nsamples = 2\nvalue = [0, 0, 0, 0, 0, 0, 0, 0, 1, 0, 1, 0, 0, 0\n0, 0, 0]", fillcolor="#39bde500"] ;
141 -> 143 ;
144 [label="gini = 0.0\nsamples = 1\nvalue = [0, 0, 0, 0, 0, 0, 0, 0, 1, 0, 0, 0, 0, 0\n0, 0, 0]", fillcolor="#39bde5ff"] ;
143 -> 144 ;
145 [label="gini = 0.0\nsamples = 1\nvalue = [0, 0, 0, 0, 0, 0, 0, 0, 0, 0, 1, 0, 0, 0\n0, 0, 0]", fillcolor="#3944e5ff"] ;
143 -> 145 ;
146 [label="goout <= 3.5\ngini = 0.444\nsamples = 6\nvalue = [0, 0, 0, 0, 0, 0, 0, 2, 0, 4, 0, 0, 0, 0\n0, 0, 0]", fillcolor="#3981e57f"] ;
136 -> 146 ;
147 [label="gini = 0.0\nsamples = 3\nvalue = [0, 0, 0, 0, 0, 0, 0, 0, 0, 3, 0, 0, 0, 0\n0, 0, 0]", fillcolor="#3981e5ff"] ;
146 -> 147 ;
148 [label="Walc <= 4.5\ngini = 0.444\nsamples = 3\nvalue = [0, 0, 0, 0, 0, 0, 0, 2, 0, 1, 0, 0, 0, 0\n0, 0, 0]", fillcolor="#39e5d17f"] ;
146 -> 148 ;
149 [label="gini = 0.0\nsamples = 2\nvalue = [0, 0, 0, 0, 0, 0, 0, 2, 0, 0, 0, 0, 0, 0\n0, 0, 0]", fillcolor="#39e5d1ff"] ;
148 -> 149 ;
150 [label="gini = 0.0\nsamples = 1\nvalue = [0, 0, 0, 0, 0, 0, 0, 0, 0, 1, 0, 0, 0, 0\n0, 0, 0]", fillcolor="#3981e5ff"] ;
148 -> 150 ;
151 [label="goout <= 1.5\ngini = 0.417\nsamples = 12\nvalue = [0, 0, 0, 0, 0, 0, 1, 1, 9, 1, 0, 0, 0, 0\n0, 0, 0]", fillcolor="#39bde5b9"] ;
135 -> 151 ;
152 [label="gini = 0.0\nsamples = 1\nvalue = [0, 0, 0, 0, 0, 0, 1, 0, 0, 0, 0, 0, 0, 0\n0, 0, 0]", fillcolor="#39e595ff"] ;
151 -> 152 ;
153 [label="reason <= 3.5\ngini = 0.314\nsamples = 11\nvalue = [0, 0, 0, 0, 0, 0, 0, 1, 9, 1, 0, 0, 0, 0\n0, 0, 0]", fillcolor="#39bde5cc"] ;
151 -> 153 ;
154 [label="G1 <= 13.5\ngini = 0.198\nsamples = 9\nvalue = [0, 0, 0, 0, 0, 0, 0, 1, 8, 0, 0, 0, 0, 0\n0, 0, 0]", fillcolor="#39bde5df"] ;
153 -> 154 ;
155 [label="gini = 0.0\nsamples = 7\nvalue = [0, 0, 0, 0, 0, 0, 0, 0, 7, 0, 0, 0, 0, 0\n0, 0, 0]", fillcolor="#39bde5ff"] ;
154 -> 155 ;
156 [label="internet <= 0.5\ngini = 0.5\nsamples = 2\nvalue = [0, 0, 0, 0, 0, 0, 0, 1, 1, 0, 0, 0, 0, 0\n0, 0, 0]", fillcolor="#39e5d100"] ;
154 -> 156 ;
157 [label="gini = 0.0\nsamples = 1\nvalue = [0, 0, 0, 0, 0, 0, 0, 0, 1, 0, 0, 0, 0, 0\n0, 0, 0]", fillcolor="#39bde5ff"] ;
156 -> 157 ;
158 [label="gini = 0.0\nsamples = 1\nvalue = [0, 0, 0, 0, 0, 0, 0, 1, 0, 0, 0, 0, 0, 0\n0, 0, 0]", fillcolor="#39e5d1ff"] ;
156 -> 158 ;
159 [label="famsize <= 0.5\ngini = 0.5\nsamples = 2\nvalue = [0, 0, 0, 0, 0, 0, 0, 0, 1, 1, 0, 0, 0, 0\n0, 0, 0]", fillcolor="#39bde500"] ;
153 -> 159 ;
160 [label="gini = 0.0\nsamples = 1\nvalue = [0, 0, 0, 0, 0, 0, 0, 0, 0, 1, 0, 0, 0, 0\n0, 0, 0]", fillcolor="#3981e5ff"] ;
159 -> 160 ;
161 [label="gini = 0.0\nsamples = 1\nvalue = [0, 0, 0, 0, 0, 0, 0, 0, 1, 0, 0, 0, 0, 0\n0, 0, 0]", fillcolor="#39bde5ff"] ;
159 -> 161 ;
162 [label="gini = 0.0\nsamples = 3\nvalue = [0, 0, 0, 0, 0, 0, 0, 3, 0, 0, 0, 0, 0, 0\n0, 0, 0]", fillcolor="#39e5d1ff"] ;
134 -> 162 ;
163 [label="reason <= 3.5\ngini = 0.617\nsamples = 28\nvalue = [0, 0, 0, 0, 0, 0, 0, 1, 5, 15, 7, 0, 0, 0\n0, 0, 0]", fillcolor="#3981e561"] ;
111 -> 163 ;
164 [label="age <= 16.5\ngini = 0.388\nsamples = 17\nvalue = [0, 0, 0, 0, 0, 0, 0, 0, 2, 13, 2, 0, 0, 0\n0, 0, 0]", fillcolor="#3981e5bb"] ;
163 -> 164 ;
165 [label="traveltime <= 1.5\ngini = 0.593\nsamples = 9\nvalue = [0, 0, 0, 0, 0, 0, 0, 0, 2, 5, 2, 0, 0, 0\n0, 0, 0]", fillcolor="#3981e56d"] ;
164 -> 165 ;
166 [label="G1 <= 11.5\ngini = 0.667\nsamples = 6\nvalue = [0, 0, 0, 0, 0, 0, 0, 0, 2, 2, 2, 0, 0, 0\n0, 0, 0]", fillcolor="#39bde500"] ;
165 -> 166 ;
167 [label="gini = 0.0\nsamples = 2\nvalue = [0, 0, 0, 0, 0, 0, 0, 0, 0, 2, 0, 0, 0, 0\n0, 0, 0]", fillcolor="#3981e5ff"] ;
166 -> 167 ;
168 [label="failures <= 0.5\ngini = 0.5\nsamples = 4\nvalue = [0, 0, 0, 0, 0, 0, 0, 0, 2, 0, 2, 0, 0, 0\n0, 0, 0]", fillcolor="#39bde500"] ;
166 -> 168 ;
169 [label="Medu <= 3.5\ngini = 0.444\nsamples = 3\nvalue = [0, 0, 0, 0, 0, 0, 0, 0, 2, 0, 1, 0, 0, 0\n0, 0, 0]", fillcolor="#39bde57f"] ;
168 -> 169 ;
170 [label="gini = 0.0\nsamples = 2\nvalue = [0, 0, 0, 0, 0, 0, 0, 0, 2, 0, 0, 0, 0, 0\n0, 0, 0]", fillcolor="#39bde5ff"] ;
169 -> 170 ;
171 [label="gini = 0.0\nsamples = 1\nvalue = [0, 0, 0, 0, 0, 0, 0, 0, 0, 0, 1, 0, 0, 0\n0, 0, 0]", fillcolor="#3944e5ff"] ;
169 -> 171 ;
172 [label="gini = 0.0\nsamples = 1\nvalue = [0, 0, 0, 0, 0, 0, 0, 0, 0, 0, 1, 0, 0, 0\n0, 0, 0]", fillcolor="#3944e5ff"] ;
168 -> 172 ;
173 [label="gini = 0.0\nsamples = 3\nvalue = [0, 0, 0, 0, 0, 0, 0, 0, 0, 3, 0, 0, 0, 0\n0, 0, 0]", fillcolor="#3981e5ff"] ;
165 -> 173 ;
174 [label="gini = 0.0\nsamples = 8\nvalue = [0, 0, 0, 0, 0, 0, 0, 0, 0, 8, 0, 0, 0, 0\n0, 0, 0]", fillcolor="#3981e5ff"] ;
164 -> 174 ;
175 [label="studytime <= 1.5\ngini = 0.678\nsamples = 11\nvalue = [0, 0, 0, 0, 0, 0, 0, 1, 3, 2, 5, 0, 0, 0\n0, 0, 0]", fillcolor="#3944e540"] ;
163 -> 175 ;
176 [label="gini = 0.0\nsamples = 2\nvalue = [0, 0, 0, 0, 0, 0, 0, 0, 0, 2, 0, 0, 0, 0\n0, 0, 0]", fillcolor="#3981e5ff"] ;
175 -> 176 ;
177 [label="Walc <= 1.5\ngini = 0.568\nsamples = 9\nvalue = [0, 0, 0, 0, 0, 0, 0, 1, 3, 0, 5, 0, 0, 0\n0, 0, 0]", fillcolor="#3944e555"] ;
175 -> 177 ;
178 [label="gini = 0.0\nsamples = 4\nvalue = [0, 0, 0, 0, 0, 0, 0, 0, 0, 0, 4, 0, 0, 0\n0, 0, 0]", fillcolor="#3944e5ff"] ;
177 -> 178 ;
179 [label="Mjob <= 2.0\ngini = 0.56\nsamples = 5\nvalue = [0, 0, 0, 0, 0, 0, 0, 1, 3, 0, 1, 0, 0, 0\n0, 0, 0]", fillcolor="#39bde57f"] ;
177 -> 179 ;
180 [label="gini = 0.0\nsamples = 3\nvalue = [0, 0, 0, 0, 0, 0, 0, 0, 3, 0, 0, 0, 0, 0\n0, 0, 0]", fillcolor="#39bde5ff"] ;
179 -> 180 ;
181 [label="Medu <= 3.0\ngini = 0.5\nsamples = 2\nvalue = [0, 0, 0, 0, 0, 0, 0, 1, 0, 0, 1, 0, 0, 0\n0, 0, 0]", fillcolor="#39e5d100"] ;
179 -> 181 ;
182 [label="gini = 0.0\nsamples = 1\nvalue = [0, 0, 0, 0, 0, 0, 0, 1, 0, 0, 0, 0, 0, 0\n0, 0, 0]", fillcolor="#39e5d1ff"] ;
181 -> 182 ;
183 [label="gini = 0.0\nsamples = 1\nvalue = [0, 0, 0, 0, 0, 0, 0, 0, 0, 0, 1, 0, 0, 0\n0, 0, 0]", fillcolor="#3944e5ff"] ;
181 -> 183 ;
184 [label="G2 <= 16.5\ngini = 0.793\nsamples = 65\nvalue = [0, 0, 0, 0, 0, 0, 0, 0, 0, 3, 11, 22, 13, 6\n7, 2, 1]", fillcolor="#6a39e52c"] ;
110 -> 184 ;
185 [label="G2 <= 14.5\ngini = 0.718\nsamples = 53\nvalue = [0, 0, 0, 0, 0, 0, 0, 0, 0, 3, 11, 22, 13, 3\n1, 0, 0]", fillcolor="#6a39e539"] ;
184 -> 185 ;
186 [label="reason <= 3.5\ngini = 0.586\nsamples = 18\nvalue = [0, 0, 0, 0, 0, 0, 0, 0, 0, 3, 10, 5, 0, 0\n0, 0, 0]", fillcolor="#3944e562"] ;
185 -> 186 ;
187 [label="Mjob <= 2.0\ngini = 0.653\nsamples = 12\nvalue = [0, 0, 0, 0, 0, 0, 0, 0, 0, 3, 4, 5, 0, 0\n0, 0, 0]", fillcolor="#6a39e520"] ;
186 -> 187 ;
188 [label="address <= 0.5\ngini = 0.612\nsamples = 7\nvalue = [0, 0, 0, 0, 0, 0, 0, 0, 0, 3, 3, 1, 0, 0\n0, 0, 0]", fillcolor="#3981e500"] ;
187 -> 188 ;
189 [label="gini = 0.0\nsamples = 2\nvalue = [0, 0, 0, 0, 0, 0, 0, 0, 0, 0, 2, 0, 0, 0\n0, 0, 0]", fillcolor="#3944e5ff"] ;
188 -> 189 ;
190 [label="nursery <= 0.5\ngini = 0.56\nsamples = 5\nvalue = [0, 0, 0, 0, 0, 0, 0, 0, 0, 3, 1, 1, 0, 0\n0, 0, 0]", fillcolor="#3981e57f"] ;
188 -> 190 ;
191 [label="gini = 0.0\nsamples = 1\nvalue = [0, 0, 0, 0, 0, 0, 0, 0, 0, 0, 0, 1, 0, 0\n0, 0, 0]", fillcolor="#6a39e5ff"] ;
190 -> 191 ;
192 [label="freetime <= 3.0\ngini = 0.375\nsamples = 4\nvalue = [0, 0, 0, 0, 0, 0, 0, 0, 0, 3, 1, 0, 0, 0\n0, 0, 0]", fillcolor="#3981e5aa"] ;
190 -> 192 ;
193 [label="gini = 0.0\nsamples = 1\nvalue = [0, 0, 0, 0, 0, 0, 0, 0, 0, 0, 1, 0, 0, 0\n0, 0, 0]", fillcolor="#3944e5ff"] ;
192 -> 193 ;
194 [label="gini = 0.0\nsamples = 3\nvalue = [0, 0, 0, 0, 0, 0, 0, 0, 0, 3, 0, 0, 0, 0\n0, 0, 0]", fillcolor="#3981e5ff"] ;
192 -> 194 ;
195 [label="studytime <= 2.5\ngini = 0.32\nsamples = 5\nvalue = [0, 0, 0, 0, 0, 0, 0, 0, 0, 0, 1, 4, 0, 0\n0, 0, 0]", fillcolor="#6a39e5bf"] ;
187 -> 195 ;
196 [label="gini = 0.0\nsamples = 1\nvalue = [0, 0, 0, 0, 0, 0, 0, 0, 0, 0, 1, 0, 0, 0\n0, 0, 0]", fillcolor="#3944e5ff"] ;
195 -> 196 ;
197 [label="gini = 0.0\nsamples = 4\nvalue = [0, 0, 0, 0, 0, 0, 0, 0, 0, 0, 0, 4, 0, 0\n0, 0, 0]", fillcolor="#6a39e5ff"] ;
195 -> 197 ;
198 [label="gini = 0.0\nsamples = 6\nvalue = [0, 0, 0, 0, 0, 0, 0, 0, 0, 0, 6, 0, 0, 0\n0, 0, 0]", fillcolor="#3944e5ff"] ;
186 -> 198 ;
199 [label="paid <= 0.5\ngini = 0.617\nsamples = 35\nvalue = [0, 0, 0, 0, 0, 0, 0, 0, 0, 0, 1, 17, 13, 3\n1, 0, 0]", fillcolor="#6a39e52e"] ;
185 -> 199 ;
200 [label="freetime <= 3.5\ngini = 0.631\nsamples = 23\nvalue = [0, 0, 0, 0, 0, 0, 0, 0, 0, 0, 0, 8, 11, 3\n1, 0, 0]", fillcolor="#a939e533"] ;
199 -> 200 ;
201 [label="goout <= 1.5\ngini = 0.631\nsamples = 15\nvalue = [0, 0, 0, 0, 0, 0, 0, 0, 0, 0, 0, 7, 5, 3\n0, 0, 0]", fillcolor="#6a39e533"] ;
200 -> 201 ;
202 [label="gini = 0.0\nsamples = 2\nvalue = [0, 0, 0, 0, 0, 0, 0, 0, 0, 0, 0, 0, 0, 2\n0, 0, 0]", fillcolor="#e539e5ff"] ;
201 -> 202 ;
203 [label="studytime <= 2.5\ngini = 0.556\nsamples = 13\nvalue = [0, 0, 0, 0, 0, 0, 0, 0, 0, 0, 0, 7, 5, 1\n0, 0, 0]", fillcolor="#6a39e540"] ;
201 -> 203 ;
204 [label="Walc <= 4.0\ngini = 0.42\nsamples = 10\nvalue = [0, 0, 0, 0, 0, 0, 0, 0, 0, 0, 0, 7, 3, 0\n0, 0, 0]", fillcolor="#6a39e592"] ;
203 -> 204 ;
205 [label="G1 <= 16.5\ngini = 0.219\nsamples = 8\nvalue = [0, 0, 0, 0, 0, 0, 0, 0, 0, 0, 0, 7, 1, 0\n0, 0, 0]", fillcolor="#6a39e5db"] ;
204 -> 205 ;
206 [label="gini = 0.0\nsamples = 7\nvalue = [0, 0, 0, 0, 0, 0, 0, 0, 0, 0, 0, 7, 0, 0\n0, 0, 0]", fillcolor="#6a39e5ff"] ;
205 -> 206 ;
207 [label="gini = 0.0\nsamples = 1\nvalue = [0, 0, 0, 0, 0, 0, 0, 0, 0, 0, 0, 0, 1, 0\n0, 0, 0]", fillcolor="#a939e5ff"] ;
205 -> 207 ;
208 [label="gini = 0.0\nsamples = 2\nvalue = [0, 0, 0, 0, 0, 0, 0, 0, 0, 0, 0, 0, 2, 0\n0, 0, 0]", fillcolor="#a939e5ff"] ;
204 -> 208 ;
209 [label="famsup <= 0.5\ngini = 0.444\nsamples = 3\nvalue = [0, 0, 0, 0, 0, 0, 0, 0, 0, 0, 0, 0, 2, 1\n0, 0, 0]", fillcolor="#a939e57f"] ;
203 -> 209 ;
210 [label="gini = 0.0\nsamples = 2\nvalue = [0, 0, 0, 0, 0, 0, 0, 0, 0, 0, 0, 0, 2, 0\n0, 0, 0]", fillcolor="#a939e5ff"] ;
209 -> 210 ;
211 [label="gini = 0.0\nsamples = 1\nvalue = [0, 0, 0, 0, 0, 0, 0, 0, 0, 0, 0, 0, 0, 1\n0, 0, 0]", fillcolor="#e539e5ff"] ;
209 -> 211 ;
212 [label="absences <= 14.0\ngini = 0.406\nsamples = 8\nvalue = [0, 0, 0, 0, 0, 0, 0, 0, 0, 0, 0, 1, 6, 0\n1, 0, 0]", fillcolor="#a939e5b6"] ;
200 -> 212 ;
213 [label="famrel <= 4.5\ngini = 0.245\nsamples = 7\nvalue = [0, 0, 0, 0, 0, 0, 0, 0, 0, 0, 0, 0, 6, 0\n1, 0, 0]", fillcolor="#a939e5d4"] ;
212 -> 213 ;
214 [label="gini = 0.0\nsamples = 5\nvalue = [0, 0, 0, 0, 0, 0, 0, 0, 0, 0, 0, 0, 5, 0\n0, 0, 0]", fillcolor="#a939e5ff"] ;
213 -> 214 ;
215 [label="Walc <= 1.5\ngini = 0.5\nsamples = 2\nvalue = [0, 0, 0, 0, 0, 0, 0, 0, 0, 0, 0, 0, 1, 0\n1, 0, 0]", fillcolor="#a939e500"] ;
213 -> 215 ;
216 [label="gini = 0.0\nsamples = 1\nvalue = [0, 0, 0, 0, 0, 0, 0, 0, 0, 0, 0, 0, 0, 0\n1, 0, 0]", fillcolor="#e539a9ff"] ;
215 -> 216 ;
217 [label="gini = 0.0\nsamples = 1\nvalue = [0, 0, 0, 0, 0, 0, 0, 0, 0, 0, 0, 0, 1, 0\n0, 0, 0]", fillcolor="#a939e5ff"] ;
215 -> 217 ;
218 [label="gini = 0.0\nsamples = 1\nvalue = [0, 0, 0, 0, 0, 0, 0, 0, 0, 0, 0, 1, 0, 0\n0, 0, 0]", fillcolor="#6a39e5ff"] ;
212 -> 218 ;
219 [label="Mjob <= 4.5\ngini = 0.403\nsamples = 12\nvalue = [0, 0, 0, 0, 0, 0, 0, 0, 0, 0, 1, 9, 2, 0\n0, 0, 0]", fillcolor="#6a39e5b2"] ;
199 -> 219 ;
220 [label="goout <= 4.5\ngini = 0.18\nsamples = 10\nvalue = [0, 0, 0, 0, 0, 0, 0, 0, 0, 0, 0, 9, 1, 0\n0, 0, 0]", fillcolor="#6a39e5e3"] ;
219 -> 220 ;
221 [label="gini = 0.0\nsamples = 9\nvalue = [0, 0, 0, 0, 0, 0, 0, 0, 0, 0, 0, 9, 0, 0\n0, 0, 0]", fillcolor="#6a39e5ff"] ;
220 -> 221 ;
222 [label="gini = 0.0\nsamples = 1\nvalue = [0, 0, 0, 0, 0, 0, 0, 0, 0, 0, 0, 0, 1, 0\n0, 0, 0]", fillcolor="#a939e5ff"] ;
220 -> 222 ;
223 [label="internet <= 0.5\ngini = 0.5\nsamples = 2\nvalue = [0, 0, 0, 0, 0, 0, 0, 0, 0, 0, 1, 0, 1, 0\n0, 0, 0]", fillcolor="#3944e500"] ;
219 -> 223 ;
224 [label="gini = 0.0\nsamples = 1\nvalue = [0, 0, 0, 0, 0, 0, 0, 0, 0, 0, 1, 0, 0, 0\n0, 0, 0]", fillcolor="#3944e5ff"] ;
223 -> 224 ;
225 [label="gini = 0.0\nsamples = 1\nvalue = [0, 0, 0, 0, 0, 0, 0, 0, 0, 0, 0, 0, 1, 0\n0, 0, 0]", fillcolor="#a939e5ff"] ;
223 -> 225 ;
226 [label="famsize <= 0.5\ngini = 0.653\nsamples = 12\nvalue = [0, 0, 0, 0, 0, 0, 0, 0, 0, 0, 0, 0, 0, 3\n6, 2, 1]", fillcolor="#e539a955"] ;
184 -> 226 ;
227 [label="G2 <= 17.5\ngini = 0.444\nsamples = 3\nvalue = [0, 0, 0, 0, 0, 0, 0, 0, 0, 0, 0, 0, 0, 1\n0, 2, 0]", fillcolor="#e5396d7f"] ;
226 -> 227 ;
228 [label="gini = 0.0\nsamples = 1\nvalue = [0, 0, 0, 0, 0, 0, 0, 0, 0, 0, 0, 0, 0, 1\n0, 0, 0]", fillcolor="#e539e5ff"] ;
227 -> 228 ;
229 [label="gini = 0.0\nsamples = 2\nvalue = [0, 0, 0, 0, 0, 0, 0, 0, 0, 0, 0, 0, 0, 0\n0, 2, 0]", fillcolor="#e5396dff"] ;
227 -> 229 ;
230 [label="G2 <= 18.5\ngini = 0.494\nsamples = 9\nvalue = [0, 0, 0, 0, 0, 0, 0, 0, 0, 0, 0, 0, 0, 2\n6, 0, 1]", fillcolor="#e539a992"] ;
226 -> 230 ;
231 [label="romantic <= 0.5\ngini = 0.375\nsamples = 8\nvalue = [0, 0, 0, 0, 0, 0, 0, 0, 0, 0, 0, 0, 0, 2\n6, 0, 0]", fillcolor="#e539a9aa"] ;
230 -> 231 ;
232 [label="internet <= 0.5\ngini = 0.245\nsamples = 7\nvalue = [0, 0, 0, 0, 0, 0, 0, 0, 0, 0, 0, 0, 0, 1\n6, 0, 0]", fillcolor="#e539a9d4"] ;
231 -> 232 ;
233 [label="gini = 0.0\nsamples = 1\nvalue = [0, 0, 0, 0, 0, 0, 0, 0, 0, 0, 0, 0, 0, 1\n0, 0, 0]", fillcolor="#e539e5ff"] ;
232 -> 233 ;
234 [label="gini = 0.0\nsamples = 6\nvalue = [0, 0, 0, 0, 0, 0, 0, 0, 0, 0, 0, 0, 0, 0\n6, 0, 0]", fillcolor="#e539a9ff"] ;
232 -> 234 ;
235 [label="gini = 0.0\nsamples = 1\nvalue = [0, 0, 0, 0, 0, 0, 0, 0, 0, 0, 0, 0, 0, 1\n0, 0, 0]", fillcolor="#e539e5ff"] ;
231 -> 235 ;
236 [label="gini = 0.0\nsamples = 1\nvalue = [0, 0, 0, 0, 0, 0, 0, 0, 0, 0, 0, 0, 0, 0\n0, 0, 1]", fillcolor="#e54139ff"] ;
230 -> 236 ;
}